digraph Tree {
node [shape=box, style="filled", color="black", fontname="helvetica"] ;
edge [fontname="helvetica"] ;
0 [label="marital-status_Single <= 0.5\ngini = 0.375\nsamples = 7529\nvalue = [5650, 1879]\nclass = <= 50k", fillcolor="#eeab7b"] ;
1 [label="education <= 11.5\ngini = 0.489\nsamples = 3824\nvalue = [2192, 1632]\nclass = <= 50k", fillcolor="#f8dfcc"] ;
0 -> 1 [labeldistance=2.5, labelangle=45, headlabel="True"] ;
2 [label="education <= 8.5\ngini = 0.428\nsamples = 2608\nvalue = [1800, 808]\nclass = <= 50k", fillcolor="#f1ba92"] ;
1 -> 2 ;
3 [label="hours-per-week <= 39.0\ngini = 0.194\nsamples = 441\nvalue = [393, 48]\nclass = <= 50k", fillcolor="#e89051"] ;
2 -> 3 ;
4 [label="gini = 0.043\nsamples = 91\nvalue = [89, 2]\nclass = <= 50k", fillcolor="#e6843d"] ;
3 -> 4 ;
5 [label="gini = 0.228\nsamples = 350\nvalue = [304, 46]\nclass = <= 50k", fillcolor="#e99457"] ;
3 -> 5 ;
6 [label="age <= 32.5\ngini = 0.455\nsamples = 2167\nvalue = [1407, 760]\nclass = <= 50k", fillcolor="#f3c5a4"] ;
2 -> 6 ;
7 [label="gini = 0.31\nsamples = 474\nvalue = [383, 91]\nclass = <= 50k", fillcolor="#eb9f68"] ;
6 -> 7 ;
8 [label="gini = 0.478\nsamples = 1693\nvalue = [1024, 669]\nclass = <= 50k", fillcolor="#f6d3ba"] ;
6 -> 8 ;
9 [label="age <= 30.5\ngini = 0.437\nsamples = 1216\nvalue = [392, 824]\nclass = >50k", fillcolor="#97ccf1"] ;
1 -> 9 ;
10 [label="hours-per-week <= 41.5\ngini = 0.48\nsamples = 140\nvalue = [84, 56]\nclass = <= 50k", fillcolor="#f6d5bd"] ;
9 -> 10 ;
11 [label="gini = 0.417\nsamples = 81\nvalue = [57, 24]\nclass = <= 50k", fillcolor="#f0b68c"] ;
10 -> 11 ;
12 [label="gini = 0.496\nsamples = 59\nvalue = [27, 32]\nclass = >50k", fillcolor="#e0f0fb"] ;
10 -> 12 ;
13 [label="hours-per-week <= 31.0\ngini = 0.409\nsamples = 1076\nvalue = [308, 768]\nclass = >50k", fillcolor="#88c4ef"] ;
9 -> 13 ;
14 [label="gini = 0.455\nsamples = 80\nvalue = [52, 28]\nclass = <= 50k", fillcolor="#f3c5a4"] ;
13 -> 14 ;
15 [label="gini = 0.382\nsamples = 996\nvalue = [256, 740]\nclass = >50k", fillcolor="#7dbfee"] ;
13 -> 15 ;
16 [label="education <= 13.5\ngini = 0.124\nsamples = 3705\nvalue = [3458, 247]\nclass = <= 50k", fillcolor="#e78a47"] ;
0 -> 16 [labeldistance=2.5, labelangle=-45, headlabel="False"] ;
17 [label="education <= 12.5\ngini = 0.089\nsamples = 3480\nvalue = [3318, 162]\nclass = <= 50k", fillcolor="#e68743"] ;
16 -> 17 ;
18 [label="age <= 31.5\ngini = 0.059\nsamples = 2909\nvalue = [2821, 88]\nclass = <= 50k", fillcolor="#e6853f"] ;
17 -> 18 ;
19 [label="gini = 0.014\nsamples = 1583\nvalue = [1572, 11]\nclass = <= 50k", fillcolor="#e5823a"] ;
18 -> 19 ;
20 [label="gini = 0.109\nsamples = 1326\nvalue = [1249, 77]\nclass = <= 50k", fillcolor="#e78945"] ;
18 -> 20 ;
21 [label="age <= 29.5\ngini = 0.226\nsamples = 571\nvalue = [497, 74]\nclass = <= 50k", fillcolor="#e99456"] ;
17 -> 21 ;
22 [label="gini = 0.056\nsamples = 243\nvalue = [236, 7]\nclass = <= 50k", fillcolor="#e6853f"] ;
21 -> 22 ;
23 [label="gini = 0.325\nsamples = 328\nvalue = [261, 67]\nclass = <= 50k", fillcolor="#eca16c"] ;
21 -> 23 ;
24 [label="education <= 14.5\ngini = 0.47\nsamples = 225\nvalue = [140, 85]\nclass = <= 50k", fillcolor="#f5ceb1"] ;
16 -> 24 ;
25 [label="hours-per-week <= 44.0\ngini = 0.401\nsamples = 155\nvalue = [112, 43]\nclass = <= 50k", fillcolor="#efb185"] ;
24 -> 25 ;
26 [label="gini = 0.317\nsamples = 96\nvalue = [77, 19]\nclass = <= 50k", fillcolor="#eba06a"] ;
25 -> 26 ;
27 [label="gini = 0.483\nsamples = 59\nvalue = [35, 24]\nclass = <= 50k", fillcolor="#f7d7c1"] ;
25 -> 27 ;
28 [label="age <= 32.0\ngini = 0.48\nsamples = 70\nvalue = [28, 42]\nclass = >50k", fillcolor="#bddef6"] ;
24 -> 28 ;
29 [label="gini = 0.291\nsamples = 17\nvalue = [14, 3]\nclass = <= 50k", fillcolor="#eb9c63"] ;
28 -> 29 ;
30 [label="gini = 0.389\nsamples = 53\nvalue = [14, 39]\nclass = >50k", fillcolor="#80c0ee"] ;
28 -> 30 ;
}